0.0447959 -0.08386895 0.11737211 -0.07926688 -0.07433697 -0.11419736 0.160247 0.10103074 -0.13134582 -0.12131307 -0.12027068 0.1010184 -0.12056964 -0.13439578 0.32142088 -0.10878886 0.12198511 0.10117152 0.09902658 -0.15280591 0.10287427 -0.07467138 0.14270245 -0.08656785 0.06849072 0.07627903 0.15770529 0.1571174 0.10089707 -0.15426484 0.0838878 -0.13233154 0.17072003 0.1082119 -0.10232675 -0.17603213 0.15305665 -0.10218726 -0.08481473 -0.11409588 0.06404572 -0.07754793 0.13584623 -0.11189346 -0.13147724 0.10540892 0.07210816 -0.12078474 0.13926335 0.14092962 0.08885395 -0.09416018 0.11118847 -0.11676595 -0.12504594 -0.09081601 0.10584362 -0.10804565 -0.08412078 -0.13539192 -0.07984175 -0.06243986 0.13157879 -0.13112397 -0.12868436 -0.07127937 -0.08443341 -0.08279282 -0.09607136 0.21655583 -0.32404745 -0.1514329 0.10254467 0.1018052 0.09999052 -0.13410455 0.15859185 0.09035895 -0.12360264 -0.07130988 -0.08419141 -0.0885319 0.07809426 0.14220922 -0.10340465 -0.11886247 0.09265446 -0.10297947 0.12153922 0.11478963 0.09850796 -0.06881061 -0.09214523 0.17779978 -0.10364299 -0.07904391 -0.1413205 0.0822453 0.08822771 -0.12740687 0.20384458 -0.1270296 0.12613384 -0.1807199 0.10259783 0.07731076 -0.12204161 0.17414616 0.1357199 0.07195378 0.10197399 0.09949975 0.07994714 0.15940407 -0.10091026 0.07517115 0.13178633 0.14623365 0.09280014 0.11780298 -0.0804298 0.11742988 0.10288638 0.13190027 0.08948954 -0.0762139 -0.23219028 -0.13810635 
