0.17095014 0.1648326 0.01270399 -0.00616668 -0.05023951 0.16974375 -0.01823269 -0.02887746 -0.00142197 -0.02919036 0.16502762 0.17321992 0.02009603 0.16424264 -0.01772623 0.00886825 0.1626471 0.00467371 0.16020708 0.17012861 0.00993297 0.16849156 -0.05748558 -0.0091545 0.16636872 0.1745548 0.03875008 0.00817654 -0.02965746 -0.01720789 0.01082325 -0.02972855 -0.01270302 0.15170516 0.00581958 -0.0359715 0.05937632 0.15922941 0.16323161 -0.02439174 0.15803097 0.1596229 -0.02874508 -0.00860153 0.16475594 0.16529024 0.04258138 0.16557884 0.16920874 0.00841824 0.15405643 0.16191968 -0.00143032 0.17446804 0.17238624 0.16454744 0.17534515 0.17052227 0.17444263 0.01550336 0.01384318 -0.00136277 -0.01166408 0.00809552 0.16774695 0.16788787 0.01174847 0.02587668 0.04407336 -0.00833495 0.00404659 0.01228149 0.00479951 0.03748915 0.00265548 0.1664787 -0.01407929 0.14285631 0.03485434 0.16317469 -0.00941428 0.17652135 0.16933963 0.05455578 -0.00811833 0.16062142 -0.01088856 0.03824466 0.00342709 -0.02203363 0.17029469 0.16910174 -0.02012889 -0.02184468 0.00570374 0.1527261 0.15711036 0.14230995 0.16684754 0.1731514 -0.0138018 0.06434068 -0.00275134 0.16201872 0.16552635 -0.02667182 0.01492466 0.15677576 0.15912135 -0.03455453 -0.00682769 0.05304681 -0.04179512 0.04332318 -0.01922358 -0.02132298 0.05287986 -0.02222708 -0.00224354 0.01193025 0.15786864 0.15537202 0.00185506 0.1535475 -0.04832028 0.15696882 -0.01814995 -0.03198065 
