0.02141586 -0.01389582 0.04186508 0.01430495 0.06218481 0.00582193 0.05154021 -0.03591266 0.01770706 -0.00659767 -0.01546335 -0.03759352 0.07426878 0.02987986 0.02033668 -0.00163169 0.05910242 0.00074946 0.01187064 -0.04750864 -0.01573072 0.06852104 -0.0226617 0.04741394 -0.02477504 -0.02664492 0.01859692 -0.0253586 0.00040898 0.04216764 0.00443286 0.00401262 0.0401447 -0.04374433 -0.00910321 0.00198647 0.01916976 -0.00618198 0.0658209 -0.03056134 0.05183708 0.05780642 0.0058235 0.08076844 0.04715948 0.07280464 0.02228906 0.05181909 0.03964602 -0.01852615 0.05664434 0.0748855 0.01612089 -0.03511928 0.03224316 0.06956756 0.07084816 -0.00957651 -0.02807951 -0.02886515 0.08194661 -0.00435862 0.0020371 0.05586315 -0.00986796 0.02739902 0.02243616 -0.03208444 0.0715419 -0.04120321 -0.02445827 0.01614297 -0.02177452 -0.03583024 0.0436178 -0.01095728 -0.00356202 0.07804896 -0.02025886 0.00113445 0.07617121 0.02290442 -0.03479867 -0.02433648 0.0099723 0.05525618 0.0778971 0.01632327 0.01578194 0.04314048 -0.02840387 0.07231117 0.01720558 0.02327771 0.00790394 -0.00217649 -0.03233932 0.01089055 0.00668793 0.05197872 0.07527455 0.04943172 0.0749025 0.04501396 -0.0205427 0.07587416 0.06884589 -0.01733506 0.0533369 0.01553293 -0.01510819 0.07452024 0.00415199 0.02690834 -0.00308872 -0.04015864 0.00423089 -0.03747463 0.05393311 0.02593984 0.00444122 0.00287164 0.0580707 0.03691744 -0.01299834 0.07910716 0.00636323 0.00062132 
