-0.55856854 -0.4832929 0.559603 -0.597907 -0.07665984 -0.45323604 0.4063264 0.7272518 -0.56209934 1.937753 0.671059 0.7184375 0.32378954 -0.69723713 -0.56580913 -0.45085847 0.36767688 -0.5417934 -0.41035697 0.71928 1.6528729 -0.09575348 -0.6133241 -0.83004737 0.66429996 1.5871397 -0.46840304 0.8348105 -0.5558187 0.34605905 -0.6485767 -0.39036047 0.44644415 0.6907385 1.533043 -0.3800893 -0.5177318 1.8675861 0.35247228 0.5927357 0.46843508 0.4738865 -0.54827607 -0.15185787 0.5226679 -0.09388929 -0.41188195 -0.12046979 0.53530896 1.269028 -0.08338262 -0.11894847 -0.5291727 0.63656574 0.60820526 -0.08926052 -0.13601384 -0.54177684 0.6584625 -0.3058146 -0.13280317 2.1405053 -0.3746044 0.3831671 -0.49400008 0.44437128 -0.5790487 0.7231955 -0.14420319 0.66666156 1.1811906 -0.55370736 1.22736 0.6816922 0.45629668 1.8879817 -0.4951485 -0.10519995 1.068792 1.8837253 -0.09887107 0.7274684 0.6436807 1.4755032 -0.75805867 -0.10159706 -0.13210346 -0.67540467 -0.52624094 0.42604053 0.6869979 -0.09186053 -0.56788385 -0.5811061 -0.55873996 -0.5480286 0.5326833 -0.6807999 -0.3779367 0.43566072 -0.10374446 0.39751515 -0.07774966 0.5460867 0.785524 -0.13616958 -0.09113757 0.7984044 0.49591935 -0.44585457 1.4754509 -0.1285076 -0.36365 -0.6723308 -0.5217934 0.64604926 -0.4046965 0.5530869 0.41995525 0.54273266 -0.404314 -0.51290876 -0.2973886 0.5936638 -0.46255684 -0.10484932 -0.44295776 -0.42343792 
