-0.00868443 0.00328412 -0.00352105 -0.01107789 0.0087085 -0.01150061 -0.00126632 0.00019604 0.01054574 -0.0037981 -0.00036939 -0.01139839 0.00776961 0.0084361 -0.00081121 0.00996245 0.0111122 -0.00465656 0.00415362 0.00774974 -0.0092354 -0.00585941 -0.0104993 -0.00646144 0.00225251 -0.00771826 0.00783626 -0.01087185 -0.00505219 0.00673963 0.00773252 0.00502667 0.00296857 -0.00697864 0.01042188 0.00852084 -0.00236945 -0.0070751 0.00888771 -0.01137064 0.00909679 0.00392608 0.00787743 0.00251541 0.01126709 0.00354977 -0.00957891 0.01118981 0.00188078 -0.00527605 -0.01116479 0.01008805 0.00658515 0.00942693 0.00050634 0.005017 -0.00718536 -0.00121621 0.00159333 0.00843683 -0.00843368 -0.01017951 -0.00230764 0.00185511 0.00426287 0.0045316 -0.00584333 -0.00544666 0.00190197 0.00286819 -0.00351558 0.00742994 -0.01072386 0.00568435 -0.01117556 0.0042869 0.00467663 -0.00018098 0.00746839 -0.00361803 0.00841453 0.00386338 0.01155005 -0.00980283 0.00365322 0.00630771 0.00074743 -0.00130961 0.00442884 0.00359171 -0.00688635 -0.01055722 0.00712379 -0.00785217 -0.01106528 -0.00594004 0.01070984 -0.00239303 -0.01172579 -0.01142364 -0.00268586 0.01131139 -0.00211465 -0.00500952 -0.00514923 -0.01122188 -0.00181723 -0.0012615 0.01083271 0.00315961 0.00939522 0.01017332 -0.01148791 -0.00137804 -0.00811358 -0.00956451 0.00726468 0.00235794 0.00505419 0.00270331 -0.00317053 0.00716168 0.00324568 0.00074226 0.00843254 -0.00929654 -0.00562748 -0.00887263 
