0.01011429 0.01060596 -0.00129936 -0.01167918 -0.01463609 0.01609897 0.00149258 0.01561505 0.01147521 0.00405332 0.00604969 9.18e-05 0.01599225 -0.0126939 -0.31639367 0.01438503 0.01263683 0.01165578 -0.0096248 -0.00323538 0.01540857 -0.01320068 0.00038644 -0.01319886 -0.0048042 0.00127692 -0.0146356 0.01553163 0.01230866 -0.01180413 -0.00807016 -0.0035596 -0.01028668 -0.01150704 0.00484174 -0.01298387 -0.00641663 -0.01262139 -0.00589189 -0.01548984 -0.01538093 0.01030668 0.00730172 -0.00428207 0.00042041 -0.01015187 0.00483813 0.00864954 0.00306646 0.00816804 -0.0117086 -0.0085605 0.01137612 -0.00319076 -0.00320713 0.00866479 0.0147716 -0.00696663 0.00584842 -0.00588056 0.00496564 0.00298456 0.0039433 0.01104711 0.00613543 0.00131756 -0.00868243 -0.00145886 -0.00684996 0.01496064 -0.00533098 -0.00437843 0.00207619 -0.00698378 0.00242361 -0.00521941 -0.01232011 0.00396018 0.01045161 -0.01383709 0.00455627 -0.01532397 0.01084467 0.00128561 -0.01174101 -0.00376051 -0.00942513 0.00026316 -0.00176362 -0.01254333 0.00182132 0.01598032 0.00286504 -0.00062425 -0.00699851 0.00254483 -0.01406998 0.00601779 -0.00040608 0.00620034 -0.00414961 -0.00019927 0.00498153 -0.00610681 0.0052557 -0.01358276 -0.00360775 0.01539811 -0.01101757 -0.005089 -0.00100939 0.0057686 -0.0072796 -0.00734884 -0.01123866 -0.0113095 -0.00709349 0.01180498 0.00705141 0.00662275 0.00837481 -0.00122366 0.00994844 -0.00215689 -0.01569737 -0.00559418 0.00767009 -0.01385853 
